Language model created by QuickLM on Thu Mar  1 17:54:47 EST 2018
Copyright (c) 1996-2010 Carnegie Mellon University and Alexander I. Rudnicky

The model is in standard ARPA format, designed by Doug Paul while he was at MITRE.

The code that was used to produce this language model is available in Open Source.
Please visit http://www.speech.cs.cmu.edu/tools/ for more information

The (fixed) discount mass is 0.5. The backoffs are computed using the ratio method.
This model based on a corpus of 68 sentences and 31 words

\data\
ngram 1=31
ngram 2=97
ngram 3=107

\1-grams:
-0.8541 </s> -0.3010
-0.8541 <s> -0.1930
-2.6866 CONTINUE -0.2356
-1.9877 EIGHT -0.2356
-2.6866 EIGHTEEN -0.2356
-2.6866 ELEVEN -0.2356
-2.6866 FIFTEEN -0.2356
-1.6866 FIFTY -0.1826
-1.9877 FIVE -0.2356
-1.9877 FOUR -0.2356
-2.6866 FOURTEEN -0.2356
-1.6866 FOURTY -0.1826
-1.9877 NINE -0.2356
-2.6866 NINETEEN -0.2356
-1.9085 ONE -0.2356
-2.6866 PAUSE -0.2356
-2.6866 RESET -0.2356
-1.9877 SEVEN -0.2356
-2.6866 SEVENTEED -0.2356
-2.6866 SHUTDOWN -0.2356
-1.9877 SIX -0.2356
-2.6866 SIXTEEN -0.2356
-2.0846 SIXTY -0.2165
-2.6866 TEN -0.2356
-2.6866 THIRTEEN -0.2356
-1.6866 THIRTY -0.1826
-1.9085 THREE -0.2356
-2.6866 TWELVE -0.2356
-1.6866 TWENTY -0.1826
-1.9085 TWO -0.2356
-2.6866 ZERO -0.2356

\2-grams:
-2.1335 <s> CONTINUE 0.0000
-2.1335 <s> EIGHT 0.0000
-2.1335 <s> EIGHTEEN 0.0000
-2.1335 <s> ELEVEN 0.0000
-2.1335 <s> FIFTEEN 0.0000
-1.1335 <s> FIFTY 0.0000
-2.1335 <s> FIVE 0.0000
-2.1335 <s> FOUR 0.0000
-2.1335 <s> FOURTEEN 0.0000
-1.1335 <s> FOURTY 0.0000
-2.1335 <s> NINE 0.0000
-2.1335 <s> NINETEEN 0.0000
-2.1335 <s> ONE 0.0000
-2.1335 <s> PAUSE 0.0000
-2.1335 <s> RESET 0.0000
-2.1335 <s> SEVEN 0.0000
-2.1335 <s> SEVENTEED 0.0000
-2.1335 <s> SHUTDOWN 0.0000
-2.1335 <s> SIX 0.0000
-2.1335 <s> SIXTEEN 0.0000
-1.5315 <s> SIXTY 0.0000
-2.1335 <s> TEN 0.0000
-2.1335 <s> THIRTEEN 0.0000
-1.1335 <s> THIRTY 0.0000
-2.1335 <s> THREE 0.0000
-2.1335 <s> TWELVE 0.0000
-1.1335 <s> TWENTY 0.0000
-2.1335 <s> TWO 0.0000
-2.1335 <s> ZERO 0.0000
-0.3010 CONTINUE </s> -0.3010
-0.3010 EIGHT </s> -0.3010
-0.3010 EIGHTEEN </s> -0.3010
-0.3010 ELEVEN </s> -0.3010
-0.3010 FIFTEEN </s> -0.3010
-1.3010 FIFTY </s> -0.3010
-1.3010 FIFTY EIGHT 0.0000
-1.3010 FIFTY FIVE 0.0000
-1.3010 FIFTY FOUR 0.0000
-1.3010 FIFTY NINE 0.0000
-1.3010 FIFTY ONE 0.0000
-1.3010 FIFTY SEVEN 0.0000
-1.3010 FIFTY SIX 0.0000
-1.3010 FIFTY THREE 0.0000
-1.3010 FIFTY TWO 0.0000
-0.3010 FIVE </s> -0.3010
-0.3010 FOUR </s> -0.3010
-0.3010 FOURTEEN </s> -0.3010
-1.3010 FOURTY </s> -0.3010
-1.3010 FOURTY EIGHT 0.0000
-1.3010 FOURTY FIVE 0.0000
-1.3010 FOURTY FOUR 0.0000
-1.3010 FOURTY NINE 0.0000
-1.3010 FOURTY ONE 0.0000
-1.3010 FOURTY SEVEN 0.0000
-1.3010 FOURTY SIX 0.0000
-1.3010 FOURTY THREE 0.0000
-1.3010 FOURTY TWO 0.0000
-0.3010 NINE </s> -0.3010
-0.3010 NINETEEN </s> -0.3010
-0.3010 ONE </s> -0.3010
-0.3010 PAUSE </s> -0.3010
-0.3010 RESET </s> -0.3010
-0.3010 SEVEN </s> -0.3010
-0.3010 SEVENTEED </s> -0.3010
-0.3010 SHUTDOWN </s> -0.3010
-0.3010 SIX </s> -0.3010
-0.3010 SIXTEEN </s> -0.3010
-0.9031 SIXTY </s> -0.3010
-0.9031 SIXTY ONE 0.0000
-0.9031 SIXTY THREE 0.0000
-0.9031 SIXTY TWO 0.0000
-0.3010 TEN </s> -0.3010
-0.3010 THIRTEEN </s> -0.3010
-1.3010 THIRTY </s> -0.3010
-1.3010 THIRTY EIGHT 0.0000
-1.3010 THIRTY FIVE 0.0000
-1.3010 THIRTY FOUR 0.0000
-1.3010 THIRTY NINE 0.0000
-1.3010 THIRTY ONE 0.0000
-1.3010 THIRTY SEVEN 0.0000
-1.3010 THIRTY SIX 0.0000
-1.3010 THIRTY THREE 0.0000
-1.3010 THIRTY TWO 0.0000
-0.3010 THREE </s> -0.3010
-0.3010 TWELVE </s> -0.3010
-1.3010 TWENTY </s> -0.3010
-1.3010 TWENTY EIGHT 0.0000
-1.3010 TWENTY FIVE 0.0000
-1.3010 TWENTY FOUR 0.0000
-1.3010 TWENTY NINE 0.0000
-1.3010 TWENTY ONE 0.0000
-1.3010 TWENTY SEVEN 0.0000
-1.3010 TWENTY SIX 0.0000
-1.3010 TWENTY THREE 0.0000
-1.3010 TWENTY TWO 0.0000
-0.3010 TWO </s> -0.3010
-0.3010 ZERO </s> -0.3010

\3-grams:
-0.3010 <s> CONTINUE </s>
-0.3010 <s> EIGHT </s>
-0.3010 <s> EIGHTEEN </s>
-0.3010 <s> ELEVEN </s>
-0.3010 <s> FIFTEEN </s>
-1.3010 <s> FIFTY </s>
-1.3010 <s> FIFTY EIGHT
-1.3010 <s> FIFTY FIVE
-1.3010 <s> FIFTY FOUR
-1.3010 <s> FIFTY NINE
-1.3010 <s> FIFTY ONE
-1.3010 <s> FIFTY SEVEN
-1.3010 <s> FIFTY SIX
-1.3010 <s> FIFTY THREE
-1.3010 <s> FIFTY TWO
-0.3010 <s> FIVE </s>
-0.3010 <s> FOUR </s>
-0.3010 <s> FOURTEEN </s>
-1.3010 <s> FOURTY </s>
-1.3010 <s> FOURTY EIGHT
-1.3010 <s> FOURTY FIVE
-1.3010 <s> FOURTY FOUR
-1.3010 <s> FOURTY NINE
-1.3010 <s> FOURTY ONE
-1.3010 <s> FOURTY SEVEN
-1.3010 <s> FOURTY SIX
-1.3010 <s> FOURTY THREE
-1.3010 <s> FOURTY TWO
-0.3010 <s> NINE </s>
-0.3010 <s> NINETEEN </s>
-0.3010 <s> ONE </s>
-0.3010 <s> PAUSE </s>
-0.3010 <s> RESET </s>
-0.3010 <s> SEVEN </s>
-0.3010 <s> SEVENTEED </s>
-0.3010 <s> SHUTDOWN </s>
-0.3010 <s> SIX </s>
-0.3010 <s> SIXTEEN </s>
-0.9031 <s> SIXTY </s>
-0.9031 <s> SIXTY ONE
-0.9031 <s> SIXTY THREE
-0.9031 <s> SIXTY TWO
-0.3010 <s> TEN </s>
-0.3010 <s> THIRTEEN </s>
-1.3010 <s> THIRTY </s>
-1.3010 <s> THIRTY EIGHT
-1.3010 <s> THIRTY FIVE
-1.3010 <s> THIRTY FOUR
-1.3010 <s> THIRTY NINE
-1.3010 <s> THIRTY ONE
-1.3010 <s> THIRTY SEVEN
-1.3010 <s> THIRTY SIX
-1.3010 <s> THIRTY THREE
-1.3010 <s> THIRTY TWO
-0.3010 <s> THREE </s>
-0.3010 <s> TWELVE </s>
-1.3010 <s> TWENTY </s>
-1.3010 <s> TWENTY EIGHT
-1.3010 <s> TWENTY FIVE
-1.3010 <s> TWENTY FOUR
-1.3010 <s> TWENTY NINE
-1.3010 <s> TWENTY ONE
-1.3010 <s> TWENTY SEVEN
-1.3010 <s> TWENTY SIX
-1.3010 <s> TWENTY THREE
-1.3010 <s> TWENTY TWO
-0.3010 <s> TWO </s>
-0.3010 <s> ZERO </s>
-0.3010 FIFTY EIGHT </s>
-0.3010 FIFTY FIVE </s>
-0.3010 FIFTY FOUR </s>
-0.3010 FIFTY NINE </s>
-0.3010 FIFTY ONE </s>
-0.3010 FIFTY SEVEN </s>
-0.3010 FIFTY SIX </s>
-0.3010 FIFTY THREE </s>
-0.3010 FIFTY TWO </s>
-0.3010 FOURTY EIGHT </s>
-0.3010 FOURTY FIVE </s>
-0.3010 FOURTY FOUR </s>
-0.3010 FOURTY NINE </s>
-0.3010 FOURTY ONE </s>
-0.3010 FOURTY SEVEN </s>
-0.3010 FOURTY SIX </s>
-0.3010 FOURTY THREE </s>
-0.3010 FOURTY TWO </s>
-0.3010 SIXTY ONE </s>
-0.3010 SIXTY THREE </s>
-0.3010 SIXTY TWO </s>
-0.3010 THIRTY EIGHT </s>
-0.3010 THIRTY FIVE </s>
-0.3010 THIRTY FOUR </s>
-0.3010 THIRTY NINE </s>
-0.3010 THIRTY ONE </s>
-0.3010 THIRTY SEVEN </s>
-0.3010 THIRTY SIX </s>
-0.3010 THIRTY THREE </s>
-0.3010 THIRTY TWO </s>
-0.3010 TWENTY EIGHT </s>
-0.3010 TWENTY FIVE </s>
-0.3010 TWENTY FOUR </s>
-0.3010 TWENTY NINE </s>
-0.3010 TWENTY ONE </s>
-0.3010 TWENTY SEVEN </s>
-0.3010 TWENTY SIX </s>
-0.3010 TWENTY THREE </s>
-0.3010 TWENTY TWO </s>

\end\
